svm_type c_svc
kernel_type rbf
gamma 2.5
degree 3
coef0 0.0
nr_class 2
total_sv 9
rho -4.532307963217627
label -1 1
nr_sv 5 4
SV
97.32977269318017 1:0.397959183673469 2:-0.23469387755102
14.658272132595723 1:-0.295918367346939 2:-0.0918367346938775
3.1767046943522703 1:-0.214285714285714 2:0.13265306122449
64.86027009263053 1:0.214285714285714 2:0.193877551020408
41.97915797455777 1:-0.0510204081632653 2:0.255102040816326
-2.2315945133742683 1:-0.214285714285714 2:-0.397959183673469
-65.81063561704312 1:0.418367346938776 2:-0.397959183673469
-100.0 1:0.214285714285714 2:0.0714285714285714
-53.96194745689905 1:-0.0306122448979592 2:0.173469387755102
