svm_type c_svc
kernel_type rbf
gamma 2000.0
degree 3
coef0 0.0
nr_class 2
total_sv 28
rho 0.07142860883672321
label -1 1
nr_sv 13 15
SV
1.0712891011134444 1:-0.275510204081633 2:-0.479591836734694
1.0712883436050449 1:-0.0306122448979592 2:-0.459183673469388
1.0712883444662895 1:-0.377551020408163 2:-0.438775510204082
1.071288355834245 1:-0.459183673469388 2:-0.418367346938776
1.071288344272961 1:-0.173469387755102 2:-0.397959183673469
1.0712883428841309 1:-0.255102040816327 2:-0.377551020408163
1.0722648669458847 1:-0.0102040816326531 2:-0.377551020408163
1.071289101143818 1:-0.336734693877551 2:-0.316326530612245
1.0712891140503855 1:0.0102040816326531 2:-0.255102040816327
1.0712891131777955 1:-0.397959183673469 2:-0.214285714285714
1.071289114348428 1:-0.173469387755102 2:-0.193877551020408
1.0712887720474196 1:-0.295918367346939 2:-0.112244897959184
1.0722652988614403 1:-0.357142857142857 2:-0.0510204081632653
-0.9287108859471069 1:0.357142857142857 2:-0.0306122448979592
-0.928710898292265 1:-0.0306122448979592 2:0.0102040816326531
-0.9287108982898096 1:0.438775510204082 2:0.0510204081632653
-0.928710898292265 1:-0.0918367346938775 2:0.13265306122449
-0.9287106127082184 1:0.13265306122449 2:0.173469387755102
-0.9287106125563553 1:0.0714285714285714 2:0.23469387755102
-0.9287108859539699 1:-0.377551020408163 2:0.255102040816326
-0.9287108982922755 1:0.316326530612245 2:0.255102040816326
-0.9287108867922125 1:-0.0918367346938775 2:0.316326530612245
-0.9277328627954772 1:-0.438775510204082 2:0.336734693877551
-0.9287106121018052 1:0.418367346938776 2:0.397959183673469
-0.9277328643109171 1:-0.438775510204082 2:0.418367346938776
-0.9287108868216293 1:-0.112244897959184 2:0.438775510204082
-0.9287106113142205 1:0.357142857142857 2:0.459183673469388
-0.9287108982827595 1:-0.255102040816327 2:0.479591836734694
